svm_type c_svc
kernel_type sigmoid
gamma 0.10000000000000001
coef0 0
nr_class 2
total_sv 13
rho -0.91299337082892995
label 1 -1
probA 1.8447652592817225
probB -1.2501286676116188
nr_sv 7 6
SV
0.31449271538323526 1:0.758621 2:0.28 3:0.754386 4:-0.666667 5:0.764706 6:0.809524 7:0.25 8:0.617021 10:0.73913 
1 1:0.965517 2:0.44 3:1 4:0.777778 5:1 6:0.619048 7:1 8:0.574468 9:-0.153846 10:1 
1 1:0.310345 2:-0.2 3:-0.122807 4:0.444444 5:-0.176471 6:-0.428571 7:0.5 8:-0.361702 9:-0.538462 10:-0.0434783 
1 1:0.103448 2:-0.6 3:-0.929825 4:0.444444 5:-0.117647 6:-0.428571 7:0.5 8:-0.234043 9:-0.230769 10:-1 
1 1:0.310345 2:-0.36 3:0.122807 4:0.444444 5:0.352941 6:-0.619048 7:-0.25 8:0.191489 9:-0.461538 10:-0.130435 
0.68550728461676491 1:-1 2:-0.84 3:-1 4:-0.555556 5:-1 6:-1 7:0.75 8:-0.319149 9:0.692308 10:-0.130435 
1 1:0.724138 2:-0.6 3:0.614035 4:-0.555556 5:0.352941 6:0.047619 7:0.25 8:0.276596 9:0.769231 10:-0.0434783 
-1 1:0.655172 2:-0.36 3:0.298246 4:-1 5:-0.176471 6:-0.238095 7:0.75 8:0.191489 9:-1 10:-0.391304 
-1 1:0.275862 2:0.52 3:0.263158 4:1 5:-0.176471 6:-0.428571 7:0.75 8:0.191489 9:-0.384615 10:-0.826087 
-1 1:-0.103448 2:-1 3:-0.122807 4:-0.444444 5:-0.411765 6:-1 7:0.75 8:-1 9:-0.230769 10:-0.826087 
-1 1:1 2:1 3:0.894737 4:0.888889 5:0.588235 6:1 7:0.75 8:0.659574 9:1 10:0.130435 
-1 1:0.448276 2:-0.28 3:0.333333 4:0.444444 5:-0.294118 6:-0.238095 7:-0.25 8:0.234043 9:0.384615 10:-0.304348 
-1 1:0.62069 2:-0.52 3:0.0877193 4:1 5:-0.294118 6:-0.238095 7:0.5 8:0.446809 9:0.769231 10:-0.0434783 
